-4.095183699000340960e-01 -3.630552497722566718e-01 -5.728370676187675981e-02 -3.405288059864925998e-01 -5.334964659228046413e-01 -2.127463096755779492e-01 -4.999614784634893172e-01 6.140559554756850474e-02 -4.068556197864436896e-01 -3.644451548745082647e-02 -4.125213975022828938e-01 -3.402917045513893513e-01 3.003989757538486072e-01 6.828651642612877659e-02 -1.200902602489273413e-01 2.688114616275076307e-01 2.736187540182687394e-01 -2.681884638420580780e-01 -2.240427390728971790e-01 -3.340531579397670869e-01 1.536727446669831076e-01 8.116088074471895786e-02 7.990400143886823570e-02 3.489660329303196917e-01 -1.722764653759849551e-01 1.210902094983135752e-02 1.851819632757272238e-01 -1.650516541524447156e-01 -3.489420289420024357e-01 -6.779665721167112136e-02 -1.113444662312094019e-01 -3.978673267531270819e-01 1.518415437573192306e-01 -1.388456544932563097e-01 -2.033908374566509303e-01 -4.556561938395457534e-01 3.304657507274333939e-01 2.924387260129938104e-01 6.377054375088724025e-02 -4.379904724589722131e-01 3.872001045567610156e-01 2.408409003455600494e-01 2.043388794345302462e-01 1.318977529758549178e-02 1.881242387493853863e-01 -1.646241790267959637e-01 -3.949399384313865280e-01 -1.862104061428998258e-01 3.459466308718198158e-01 2.144196627248140183e-02 -2.875721080779249372e-01 2.091708336655828324e-02 -4.686328727436551711e-01 -1.678336395315936300e-02 -1.895409034411708049e-01 4.574071680231289738e-01 -2.353857094959582730e-01 3.907369367170495655e-01 2.260129720720993607e-01 -5.333733171682374374e-01 -2.871050770344230063e-01 -4.523214443054975331e-01 5.530747051154446051e-03 -4.383862134585651549e-01 -5.465775607282780113e-01 3.407826321326409835e-01 -4.232394560948107287e-01 -4.472145827861786355e-02 -5.001508182401530611e-01 -6.139192496014341804e-01 -2.656693377755299790e-01 -3.595088787018841936e-01 -4.195115347430080632e-01 -9.183480058959549164e-02 -2.512644498370306678e-01 -4.975109441672707078e-01 -5.269242044407707048e-01 2.465012733474839235e-01 -3.497060302840336310e-01 -5.677123851274999966e-01 -5.062483839945352004e-01 2.406840575037393348e-01 2.411997863523912544e-01 -3.602881942995102005e-01 -3.993106325613241525e-01 -3.740947621606687257e-01 -2.623348360105343113e-01 2.745345596584886083e-01 -2.721108439598382001e-01 -7.688108474107137325e-02 -4.354023239189972472e-01 -6.079964688040518928e-01 -9.706665238017704589e-02 1.342471298263616941e-01 9.529019872806469837e-02 -1.471157017891630732e-02 -3.313470255183090241e-02 -3.577107166066582078e-01 -1.011882057993078732e+00 -3.417699720681221520e-01 -6.066369379489086056e-01 -2.290326795673957583e-01 -6.236459185358360635e-01 -3.815162775952736229e-01 -8.604702142322657732e-01 -7.296721146545045444e-01 1.010210832312136570e-01 -2.583945052825143973e-01 -2.097845057334428998e-01 2.622476891578866542e-01 -4.578912657948349674e-01 3.545831104205655615e-01 -1.734386742156215355e-01 2.212282137002100635e-01 -3.731738162215341714e-01 -4.678763579645163206e-01 -1.934270466914136677e-01 -3.469934525177689744e-02 -2.202899197730165126e-01 -2.710186298235116586e-01 -3.411753848700254110e-01 -8.167292335562065242e-02 -1.411845151387544350e-01 -9.675536296547924131e-01 -6.070953417437877642e-01 -1.010630654836306208e+00 -1.592183582657945795e+00 -8.315188501284586087e-01 -4.026661008178619161e-01 -7.663859840005309010e-02 -5.262438210102076130e-01 -5.359759693868749730e-01 -1.100701551976951270e-01 -8.246291471917254201e-01 4.473031234191205963e-01 -4.464995890003043422e-01 1.573854228561449575e-01 3.989095246314072751e-01 -2.951748254867900267e-01 -4.914419769010059391e-01 -4.214433100703579224e-03 3.645666357396248891e-01 1.844855127019724705e-01 8.175924743260806760e-02 1.590992974069265486e-01 2.845298973217197935e-01 5.066296759570575459e-01 1.416505059581922299e-01 1.512651618413311250e-01 -4.167678271413489677e-01 -9.699646456322786117e-03 -6.474182703566810915e-01 -1.131553355193079202e+00 -1.639987910065537235e+00 -2.187901666874681350e+00 -1.064006389172744260e+00 9.316549732141435891e-01 1.343637866367151323e+00 3.329168329239373669e-01 -3.187902472229036666e-01 -2.880324690351050432e-01 -4.449084152751944105e-02 2.772027260151467831e-01 -9.269023381061909650e-02 5.856685538242777794e-02 -1.625197726782323382e-01 1.820942386664344270e-01 3.546605906764265237e-01 -8.528008987007808239e-02 -4.707433266019513396e-01 -2.723795575331081076e-01 -5.064922796377124836e-01 -8.266823617181492945e-03 5.713318299587474280e-01 -7.474371077077776593e-02 5.762943616224982524e-01 -2.185241059387836235e-02 8.240620698634251728e-03 -5.308518114027460655e-01 6.942845822090372432e-02 -3.903111699038242510e-01 -2.517357430464414403e+00 -2.291661950119691760e+00 7.445793979275602825e-02 6.383033606550603256e-01 1.698765110939862044e+00 1.866767963998537116e-01 -4.070433162187696019e-01 -1.390247996549792003e-02 -1.814416074224633676e-02 2.221052997464976475e-01 -1.163866421470156065e-01 3.127775346656646582e-01 -2.105367932628975369e-01 -4.094489447184772590e-01 1.540999278889575719e-01 -1.939187928521652338e-01 3.412526947554871404e-01 -3.777653749967357921e-01 2.227634744480133100e-01 -8.656592552161138099e-02 3.870875950405077148e-01 4.598040806919483081e-02 7.960036139218176210e-01 2.047498296457171685e-01 1.804756376446579602e-01 -2.140396195631327214e-01 -2.673216070233075392e-01 -1.856550915732299245e+00 -2.893221136178468544e+00 -1.796800915057486403e+00 3.530449577078358381e-01 5.952295349470665409e-01 7.715618358488353090e-01 -2.683947888868657983e-01 1.130954523430987985e-01 -1.271293919359495032e-02 4.680202626223550072e-02 -4.069543805581520013e-02 9.618978325253041417e-02 -7.920236253693903050e-01 -3.206598193071925618e-01 -3.890108601964705759e-01 4.379818943716071167e-01 1.755562317970273470e-02 2.456160289730089930e-01 -1.047469016521967444e-01 -3.793937128641174106e-02 -5.718389069716742767e-01 -3.461050544710637666e-01 1.839122201911282950e-01 -2.175976471130472711e-01 4.661073767050357142e-01 6.277384847229863230e-01 3.268488137376401870e-01 -3.401488786145681065e-01 -2.414184962725716588e+00 -2.212425767031925616e+00 -1.448236225792974619e+00 -2.138287358708748902e-03 7.835326715806160136e-01 1.164003847944511172e+00 -5.283399367217972431e-01 -1.209545616575097293e+00 -6.884557628775166416e-01 -1.545892065430184981e-01 -8.429060724493773193e-01 -4.435312916114799719e-01 -2.830998318173833517e-01 -4.347246579663376909e-01 3.596631193432687779e-01 2.970936991688735707e-01 3.885961302719716515e-01 -3.764624595703426335e-01 -1.317390927123670841e-01 -6.087496564170603586e-01 2.469540766717026326e-01 -1.248958790978640376e-01 -6.699800686486190315e-01 2.924424277771752734e-01 5.435513523875853265e-02 6.886616379325153359e-01 -1.653380740811656313e-01 -3.996380243639454655e-01 -1.345972813810494717e+00 -1.769028286225049929e+00 -1.418341241832009825e+00 1.308350993391838857e-01 1.749637534963262464e+00 7.679332797226152696e-01 -8.101353500904425742e-01 -2.981584745096926489e-02 -9.927688721614830181e-01 -5.413825687643174511e-01 -3.965523441114305325e-01 -7.300892745095987069e-01 -4.250881559319230063e-01 2.301693348888179114e-01 3.516101122080095287e-01 -4.470501938842859069e-01 1.957986459348297903e-01 -4.635562472838385406e-01 1.323154358405895514e-01 -4.209295283598852855e-01 -3.766038041641691092e-01 3.689757460241480103e-01 -3.905368617994826597e-01 2.168336286742258145e-01 5.688652227753534518e-01 5.004264131868810805e-01 1.229135461431815346e-01 -1.884455341732750588e-01 -1.235609628435298646e+00 -1.615241990368774916e+00 -1.220655479040380742e+00 9.134058499662536246e-01 9.228855221825371657e-01 8.359909632780968547e-01 -8.135728502513196458e-01 -1.588324089256104577e-01 -8.914831249524738377e-01 -8.784572630488159950e-01 -5.719328140942281369e-01 -6.857373831453393853e-01 -6.389815071817062098e-01 -2.365006242083786056e-02 3.806912763321202986e-01 1.410024340290433331e-01 -2.660817477341801962e-01 4.044146115189255486e-01 -3.506471816345881343e-01 3.994326394513063316e-02 3.456373546615165715e-01 3.949408904503189932e-01 -4.639221686311222337e-01 -4.409068375079624458e-01 -8.306539607534205172e-02 8.883678781408529401e-01 8.124053953968388697e-01 8.138722062874755026e-02 -3.497096304834622083e-01 -3.277050323503236107e-01 -5.227154051986775407e-01 1.759823582295896305e-01 1.083455703268097592e+00 -3.103891180267095984e-01 -4.440818731480926096e-01 -1.300934037267062582e+00 -5.069558628280258494e-01 -8.908536273991567445e-01 2.411278492946640761e-01 -1.571923115125527515e-01 -7.575338820724901445e-02 3.457083455288070817e-01 -7.471970081482228604e-03 -5.631280729136041441e-02 -3.110928591982972113e-01 -7.048523085147793965e-02 -1.298510797893377700e-01 -3.379184976774952109e-01 -1.502814580291599866e-01 1.700639714219065457e-01 2.871795463248905111e-01 3.348778378170151893e-01 1.343433802350108355e-02 5.179029649454113260e-01 6.069325158632150607e-01 4.287091786951332528e-01 9.353926097447958776e-01 6.981884723831106865e-02 -1.069992307329817205e+00 3.410957170893648138e-01 5.828031773257843495e-01 4.892301694073196705e-01 -7.461731887895255433e-01 -3.807538809915266276e-01 -2.512793323385560940e-01 -2.810189236838747107e-01 -2.789550397153686134e-01 -4.151270283892967705e-01 -1.961372110729464879e-01 -3.535808298681671902e-01 2.304449268742125023e-01 4.411136173237574509e-02 -1.989072533703082346e-01 3.067710984772332172e-01 -3.011396727588978584e-01 1.348186801847569005e-01 1.314545128616269598e-01 -6.999037139920105677e-02 6.111618079375686907e-01 1.242806041259193577e-02 1.907528927334452840e-01 3.600428907046953619e-01 6.934739201471609160e-01 4.327740790243118085e-01 8.211136240046668089e-02 -1.386052981113377047e+00 -7.873500165372405712e-01 -1.424169952589467991e-01 8.394946629960609030e-01 6.005775836399600554e-01 6.728732557737096553e-02 4.744585950514335071e-01 -3.891813517087444607e-02 2.749829016953730942e-01 5.451847822169368918e-01 -7.715158920902356887e-02 -3.790409557778670058e-01 -2.995644035799930882e-01 1.759474766094508077e-02 -2.666075501007681980e-01 -1.591458532081855282e-01 -3.766162221097331120e-01 -4.379561656407918724e-01 5.324427047428240134e-02 4.321370717596481059e-01 2.723660019029642831e-01 4.371760843379682848e-01 7.177094024414067963e-01 4.304377557721908443e-01 7.615255402178456867e-01 2.021864864984731502e-01 7.457795271873410847e-01 -6.266228384764818138e-01 -5.382652495660147363e-01 -6.495203753432483573e-01 -4.025796793561510212e-01 1.180640358835453707e+00 4.483731108110291519e-01 7.475072006237125644e-01 4.657908956317417526e-01 -6.652603282685237707e-02 8.116033967329273902e-02 3.356632930791794006e-02 3.556434702695930594e-02 -3.048349275218476540e-01 2.466808306322290090e-01 -8.738913419455540676e-02 -1.428242863860354137e-02 2.359581762840495256e-01 -4.777457469222960440e-01 1.745070997834618498e-01 3.795915894907933574e-01 1.151526087219824079e-01 5.359569049540742480e-02 2.286849702208587076e-01 8.317358062434295762e-01 5.372515593312126025e-01 5.640772810740312115e-01 -3.135407692739008295e-02 3.934255059718841374e-01 -4.491957671721178991e-01 -2.761777749378996338e-01 6.309940049031685649e-02 3.215520784260136322e-01 3.533168147985493168e-01 6.761799545550628565e-02 2.539591664725508458e-01 -3.016506020963246812e-02 1.366603112955994126e-01 3.559074250171027076e-01 -9.767724329700842867e-02 -2.273336428913973195e-01 2.179257380503415165e-01 -4.202204370220258278e-02 2.327248624393818688e-01 -4.174251847459501397e-01 4.071927011660106954e-01 1.049511416162635796e-01 -2.497173824136803000e-01 -9.172156083940716242e-02 -3.377888216854019188e-01 -3.700737878120615165e-01 -5.341538575322742760e-02 2.957408900804507912e-01 -2.788662017795055514e-01 -6.564955411922854256e-02 -9.371181974913916912e-02 2.189091491649778481e-02 -1.896076435888777723e-01 -4.148516626472319169e-02 -7.861976975301501191e-01 1.642475427626850504e-01 -2.232311161937967359e-01 6.397166716037042122e-02 -8.841351269699129767e-02 1.185793134405925958e-01 7.818362860053211794e-01 9.458849430468440067e-01 -2.158549731855477494e-01 6.316172307529453744e-02 4.088131733757410791e-01 3.289070245010771720e-01 -3.881939611855517724e-01 -1.030652456819794449e-01 -3.651203195362811016e-01 -1.298585706531134032e-01 4.462663715512471541e-01 -4.859268335679947093e-01 -1.095176594344341586e-01 -3.991134341748630576e-01 8.506202252215662452e-02 7.404789420987493154e-01 -8.579560173966629955e-02 4.914381572878823157e-01 -7.043120002182279293e-01 -1.123864885382633988e-02 -8.111530908046583610e-01 -2.817803272239139956e-01 2.898391108125042970e-01 -5.238854277138108723e-02 4.947767115890072676e-01 -6.508220573045704338e-01 6.004883196014905167e-01 4.188015567633740499e-01 -7.894992373245925121e-02 -2.444433145231557358e-01 -2.272770709360203423e-01 -1.408766247838606940e-02 2.877689130835235920e-01 -3.343684832223480230e-01 2.293575361672062496e-01 2.848207201561240298e-01 -1.402555620641620371e-01 1.947133034828374964e-01 -1.254115161441024529e-01 -2.096106927118900898e-01 -3.017180058476846560e-01 -6.813034933851982444e-01 -8.709139528920522011e-01 -4.882534210699908395e-02 -8.152701241791550091e-01 -7.859643799923553276e-02 3.737700200524881056e-01 -1.716954847652480132e-01 -3.990009147321210703e-01 5.851344642686382436e-01 -2.485551786855775547e-01 -7.174244162651780693e-03 -1.204475493053037694e+00 -2.842476928516483592e-01 -7.447767575703035936e-01 -7.607936915122629484e-01 -2.415892303177341605e-01 -1.378563364851411177e-01 -7.518154968073972322e-01 -7.566319830132643698e-02 -1.848384918436183355e-01 -1.375729781805415664e-01 3.483329003119665646e-01 -2.282651745735372883e-01 -2.541118881271366980e-01 6.724133925894749952e-03 -2.342258608183130641e-01 -4.063934730284358698e-01 -4.322562334353103330e-01 -6.085184904246122573e-01 -1.954520398326797803e-01 -6.987949595257755440e-04 -6.222311950626085997e-01 -1.094426026921493933e-01 -1.130047029412494908e+00 3.776461179114903172e-02 -6.050501204589336934e-01 -2.666296089010416481e-01 2.192529263291323471e-01 -3.468563630033476564e-01 -6.270326952321790825e-01 -8.594918902472862277e-01 -4.202375610823110841e-01 -4.341910696038524253e-02 -3.201924642272114818e-01 -3.796951128147140753e-01 -2.570816681689627736e-01 5.037846704563703204e-02 -1.151797467895830790e-01 -3.977500487051547906e-01 -1.901085713963144297e-01 -4.447895214082323023e-01 2.959997033608894323e-01 -3.156706374692098693e-01 3.024892605798925604e-01 -3.436361819010624319e-01 -4.055385127889457042e-01 -4.205289382148477695e-01 -7.075023675627527264e-02 -2.374373277687976402e-01 -4.290393967609691939e-01 -6.682475418867727113e-01 -4.544003753389669886e-01 -1.713086529454522777e-01 -3.724028797484367770e-01 -3.353511129549002212e-01 -7.155619442316731027e-02 -5.079791921647650588e-01 9.310184811625789314e-02 -5.230313801618755587e-01 2.794059465048947533e-01 -6.079296510534575315e-01 -5.034056536702145868e-02 1.329978342421812010e-01 -2.388901451133158271e-01 -4.291351154366211951e-01 1.677773274356084421e-01 3.688744323018950388e-01 2.230253091399383991e-01 1.898962373696274908e-01 2.095694271273893516e-01 2.573788714477620032e-01 -2.187754267017630316e-01 -1.091206661931441724e-01 -1.714673477181770378e-01 -2.739100104599885843e-01 -3.092038082618379230e-02 -3.383458334028351111e-02 2.798337759987159501e-01 -8.105549904385661586e-01 -3.430806796375529544e-01 -3.653791398555270020e-01 -4.648016290552167140e-01 -1.803294580209788556e-01 -5.249131445028744070e-01 -1.809283683664595077e-01 -4.147231549845598053e-01 -5.039818898745639097e-02 -2.815480304196786854e-01 -5.290078371224132825e-01 -4.736562621288082919e-01 -2.132506867141461260e-01 8.788033216586847718e-02 -1.256898289129695090e-01 2.536148725514431601e-01 -2.145832478385386877e-01 -6.061627513015302449e-02 4.450911281412964771e-01 -2.249231428691489953e-01 -5.273622486178480839e-01 -8.027673225012139924e-02 2.357072353951029375e-01 3.302677144972615553e-01 -5.095958492741143875e-01 -1.197118007973956150e-01 -4.960460103864207382e-02 -5.564891875926063214e-02 -8.560780689495800511e-01 -2.706439407928016294e-01 -6.349236182183274346e-01 -5.156896302143091360e-01 4.831167997711132145e-01 -4.474503624236444432e-01 6.671648613206311758e-03 -5.352628034414954605e-01 3.948986393150233365e-01 -6.197820005074077265e-01 2.417235679904783732e-02 -5.568404778609465922e-01 -4.673416999106995151e-01 1.155208770302010857e-01 -5.114337955189109941e-01 3.752570189875003570e-01 4.304367243868598147e-01 -5.352883212242840472e-01 1.451666741547152917e-01 -5.310124605979570367e-01 2.159642679410347932e-01 -2.087021443409003418e-01 -7.637397817060308236e-02 2.550016887682253763e-01 -1.397224385181008999e-01 1.504560995692718617e-01 7.450737968605516959e-02 -2.298860908083498189e-01 2.340056441274610266e-01 -2.946036621904939146e-02 -4.827797801038787306e-01 -1.964285610010489957e-01 6.679143694430349498e-01 2.852979148288715128e-01 -5.776011307826748320e-01 -2.655367438223594778e-01 2.325399083531461131e-01 -6.146083859126814930e-02 1.855750274089036367e-01 -1.213875024759068603e-02 -9.830936631369317780e-02 5.711119951650851095e-02 1.639140249125401461e-01 4.311398545106634450e-01 -2.802836458026071731e-01 3.443591765631538459e-01 5.492186490494982420e-02 3.882992334221198050e-01 -4.204199323214253825e-01 -3.087829497869754025e-01 -3.521862727538216942e-01 1.167403491437236651e-01 -6.650846915178163510e-01 -1.611137061504476775e-01 -8.733298248712977330e-01 -5.404084895771548158e-01 -5.072735716704894759e-01 -7.951098834308563124e-01 5.781305978712743482e-04 1.403407475511656288e-01 4.767131836224328817e-02 5.304104458648754017e-01 -1.838730354026446023e-01 -2.928320638046250646e-01 -1.696576562595479010e-01 6.606010625528255797e-01 -7.226402893870406130e-01 1.096281768095375697e-01 2.751812736936923853e-01 -4.615724418491447545e-01 4.290891896236553871e-01 -4.337533150103701357e-02 8.984376778803934704e-02 -3.384354422743340168e-02 -1.114077893959337512e-01 -4.308111643404763380e-02 3.786496565769793543e-01 3.006170903370616876e-01 1.847171075847138799e-01 -2.403532055894186670e-01 2.903042825134024008e-01 -6.953244696542307812e-01 -2.930649383577814682e-01 3.080538206251198230e-01 3.122909190888575326e-01 -2.888286023131439451e-01 -3.648784442911564563e-01 -1.263898802257860776e+00 3.188880786034902631e-02 -6.060660707569217598e-01 -6.133923127600472425e-01 -8.200676948707870118e-01 -1.576541170035149764e-01 -5.408058992977878843e-01 -7.671419171235345225e-01 -7.233103733894941101e-01 -4.932762826468949369e-01 -2.763846959938395451e-02 -3.144358632856304459e-01 -3.161389319055792346e-01 4.206861579094615666e-01 -2.325523159696213371e-01 -5.817089776981505811e-02 -1.141657019732485873e-01 1.715307570183438601e-01 3.863542337843841601e-01 -4.454741798754914273e-01 2.651976128707519420e-01 -5.314973718085778120e-01 -2.210135223678076077e-01 -1.593679117446052465e-02 2.440267087240581001e-01 -9.090425330389008407e-02 -5.491742678730797689e-01 -2.257277481146272025e-01 -6.121962907916904673e-01 -1.091095427148126351e+00 -7.985179173446519396e-01 -3.381149972623579414e-01 -1.846148347702779302e-01 -3.652270899656361869e-01 -8.650312437245065711e-01 -9.941476861195261416e-02 -6.087093574779365301e-01 -3.185971320125317585e-01 3.417632125819392019e-02 4.116463348798897193e-01 -5.948683869344197073e-02 3.638933346675766733e-01 -4.845264930525650104e-01 -2.455643236089761761e-01 -4.429516376455553406e-01 2.633436217232502097e-01 -1.222550717803074644e-01 -4.536451297499314306e-01 3.945608126434294594e-01 2.578908682864230473e-01 -2.653609325111656592e-01 -4.318486174832275037e-01 -2.813633367972923627e-01 -3.262551426151038547e-01 -2.077535461781783166e-01 3.562634274806824042e-01 1.240710832770927641e-01 3.359822288163542003e-01 -3.420931217710522221e-01 -2.705518618991447632e-01 -3.053621469512162179e-01 -5.586123509889627803e-01 3.196912329304671951e-01 1.065728295574086409e-01 -3.254880621277300712e-01 2.032568649632223723e-01 2.814853646951450683e-01 3.523895512090685078e-01 1.645547654307245589e-01 3.559986791096537706e-01 2.195377174468230996e-01 4.390360858027785307e-01
-1.681410092620037322e-01 1.970804668043399654e-01 -4.589350940514181909e-01 -4.685049757609737187e-01 -5.151780002902789368e-01 3.246053731427926969e-01 4.247573497163360523e-01 -5.132546139183745693e-01 1.894928724487485450e-01 6.551646675309678869e-02 1.884033708090474338e-02 -3.537733940689042900e-01 -3.705331714238742635e-01 3.187787143312842963e-01 -7.024663826828689284e-02 -4.102858483577490056e-01 -4.561926885366605067e-01 8.512186086686594766e-02 3.332358935193636684e-01 -4.721590681347767049e-01 -6.972249972621616387e-02 -2.785727852262449566e-01 -2.652737539323325455e-01 1.176712711460952548e-03 -4.702435640568844999e-01 -5.162355251451266058e-01 -1.085496890077126270e-01 -3.009107937044293024e-01 2.401790794088918546e-01 5.931657713412559485e-02 4.436291650081412019e-01 -2.467343526414308708e-01 -2.342680345119375340e-01 4.741420618267108145e-01 2.720919386019945638e-02 1.091865982034280758e-01 -1.257727687243072046e-01 1.746490029141679334e-01 2.772528155559724206e-01 -9.991098618329247172e-02 -2.252749093473404574e-01 2.769448561333422432e-01 2.930223214485194391e-02 -1.830619525733802322e-02 1.539898291459737556e-01 -2.405842677552873510e-01 -6.150539229140446901e-02 -3.702863332194446522e-01 4.175129732556532441e-02 -1.652399202422055180e-01 -2.580658329608079282e-01 -7.405793506078132971e-02 -1.028546421662059479e-01 2.413492077314867423e-01 -3.546393467210500194e-01 -2.126916251149706671e-01 -9.882826832257014804e-02 2.132407262659181402e-01 3.865598451660927637e-01 -1.828926208347980975e-01 3.907966492322681451e-01 -1.391772772384527457e-01 2.324670392451533285e-01 -4.474987732940413077e-01 4.416772740920918983e-01 -5.097978425583934298e-02 -5.738074123769732610e-02 2.912178403073392013e-02 1.366451848262835445e-01 -2.858304560581551024e-01 2.757218388429862888e-01 -2.812049183204214375e-01 9.281524589689567339e-02 -3.265075280138017844e-01 -1.399613523495679135e-01 -1.108839861227357837e-01 -2.945814809106694354e-01 -3.503772609778117442e-01 -3.998535493017869591e-01 1.659497486466049443e-01 4.073115550565968856e-01 3.012619673757864214e-01 -3.580303271425289147e-01 -2.516308644895464131e-01 2.973977725505770886e-01 -1.694299266738134302e-01 -1.383992509036157947e-01 4.801616613090194385e-01 -3.067073072425847147e-01 3.834395483699564178e-01 -2.891833172333406199e-01 4.024965195044883370e-01 1.707336954253183825e-01 -6.060063859909601419e-02 -3.112069723721540560e-01 -3.422881648797901910e-01 -7.008520425714051538e-02 1.309325636532735482e-01 -3.352673678464141438e-01 1.780885458220651807e-01 -3.434162574108740040e-01 -3.409114450752923631e-01 -5.873382454365021488e-01 -5.228488099735172367e-01 -1.014590024523982607e-02 4.769409523279169623e-03 -2.845079162187657551e-01 6.433981438912110551e-02 3.719398132757168463e-01 -1.256994906949712165e-01 4.129518161055379388e-01 1.042531658799783906e-01 4.641104270658200637e-01 2.307715781874024596e-01 1.569833301296726449e-02 -4.551260660054820550e-02 2.972473292873341055e-01 -4.072003529971319202e-01 -3.580610343373989979e-01 -3.995460929622546842e-01 -2.830579185513177887e-01 -3.230017904191078149e-01 4.814970006650973744e-01 4.817221734175825554e-01 -2.449308359100103027e-01 -5.149605614727299496e-01 -1.186898267834211596e-01 -4.054036208762114013e-01 -4.188405797779886641e-01 -8.286505978131535333e-01 -6.604561873888665779e-01 -4.931039100831318134e-01 -3.492344843762753004e-01 3.364238570743678935e-01 -4.231826629804642109e-02 2.031313388401138342e-01 -4.723304678870650641e-01 -1.313216641388803563e-01 -4.225580780912946421e-01 4.488035982825412384e-01 3.064286424379008000e-01 4.799219886964958270e-01 1.764641571799419328e-01 4.282722888398057814e-01 -4.318433215252260315e-01 1.791190595011210238e-02 -8.507847471420083851e-02 3.192290447525240604e-01 -8.684524410911211023e-02 -3.073842548246683015e-01 -1.816272871943352685e-01 -2.049206367333719359e-01 -4.914373785259095184e-01 -8.151948008586417105e-01 -5.110218444401782856e-01 -6.001930112583266919e-01 -3.365799190612155378e-01 -1.990804765221758366e-01 -5.796755733319584047e-01 -2.459679016569871202e-01 -5.049577024774498657e-01 -4.480371311229150999e-01 2.211957503768325062e-01 -2.603200654724369123e-01 8.379378095630779510e-02 -5.542464135141914137e-04 -4.983995977065891481e-01 -4.371985237603452368e-01 -2.904662057954287002e-01 -2.201425831927328047e-01 2.524024790754847980e-01 -1.324503308420529046e-01 -1.441570734154548616e-01 -3.779291112162128097e-01 3.560395104784744302e-01 5.265292798424538179e-02 -2.645072856744109524e-01 3.940873119142492276e-01 -3.661884369769338177e-01 1.794243291231191750e-01 -3.499034563129668762e-01 2.155754270445254042e-02 2.475058613420611231e-01 -6.410627400442019119e-02 2.161531656798361956e-01 -1.002181526264833561e-01 -1.026547494453953213e-01 5.040918870321691170e-01 -1.130456506334549943e-01 -4.097791422350994250e-01 -3.540002590207543265e-01 3.240085953667756757e-01 -5.321416728242567284e-01 2.168701666951875634e-02 -3.557036199852021685e-01 4.529741790368979615e-01 -5.836580909368042740e-03 2.048153311095977647e-01 -4.043825132071272033e-01 -9.960029052066220190e-02 -1.902896449503520271e-01 -2.520293085942456046e-01 2.012561149916944625e-01 -3.245478697472786722e-02 -2.450297055205040431e-02 3.451890428949215273e-01 3.892482529086812582e-01 -7.725612476661350425e-02 1.014277361874910688e-01 2.303952893094336415e-02 -2.310829941214389560e-01 2.476044746910872063e-01 -5.504318936030343501e-01 -1.056849315164551939e-01 -7.412832719608895837e-02 -9.140989105212468657e-02 -8.987513746302407125e-02 3.517599726325387199e-01 -2.492752797461816605e-01 -3.780032020272058313e-01 -3.132792397693660025e-01 2.716628557233780050e-01 3.732689397024491207e-01 -2.863374896978224671e-01 -2.690977596551486495e-01 8.717250881045271460e-02 -2.764614638079037068e-01 2.992638903031653586e-01 -3.654582492950519956e-02 1.883797577818486502e-01 -2.518041551968079328e-01 2.476105308021342710e-01 -6.088810031944282830e-01 -4.422144325319023704e-03 -6.009093382471357436e-02 3.526389613484536695e-02 -1.322050117307474737e-01 -8.250813623247181816e-01 -1.037881309243803729e+00 -9.449255343978022470e-01 -5.700172219959350750e-01 -6.427233441887345577e-01 1.531094889311873930e-01 -1.888999125714507510e-01 5.001043011117110026e-01 2.391897231189383244e-01 6.240825741884038075e-02 -7.219192274356907024e-01 -1.661019852920611606e-01 -4.586420487126952050e-02 -3.546055515399637037e-01 3.777396291107913973e-01 1.972782393600202300e-01 1.266623648739213237e-01 -5.243348634011395504e-01 4.700127592331637127e-01 1.415426429773830319e-01 -8.896207725455260173e-02 -3.270271019116677280e-01 4.959812109343481601e-01 2.433206093956306604e-01 -6.525948863135954126e-01 -9.552675900402431489e-03 1.476274086362973359e-01 -9.209104995072717181e-02 -3.466376134462126335e-01 -8.896991546738935996e-01 -6.786799915616922307e-01 -3.284805153250615617e-01 8.790644808961631251e-02 3.159373170300511235e-01 1.349387775306435389e-01 -1.722482292981890595e-01 1.408714942466766755e-02 6.581642298594916340e-01 -5.437873625758679053e-01 -9.243529745186784830e-01 -3.379362859599242541e-01 -1.300406396323042502e-01 1.545081550162685780e-01 -4.023655276767947875e-01 2.470337672739581769e-01 1.948364176221351329e-01 1.799793236061603963e-01 -6.247669626578232493e-02 -2.757012366269750436e-01 2.578665839667634851e-02 -3.140062944275157641e-01 6.383895244152616721e-02 -3.860897402983517329e-02 -2.971876424207942763e-02 -3.733306100982456410e-01 -5.964638415501725133e-01 -6.930998016184571897e-01 -1.250796975901160346e+00 -5.550543983754809840e-01 -5.020677633635975412e-02 1.783193312818394105e-01 1.795236796845746635e-04 -1.404802371317363796e-01 -3.784607981718787761e-01 1.996638474961544285e-01 -2.914194379287093559e-02 -7.626461211208029889e-01 -1.992197455114868010e-01 -1.944304423591987074e-01 -1.237805064915723091e-01 -2.508144793488805147e-01 4.667744704000914568e-01 3.513839300037468472e-01 1.610225943270711391e-01 -9.031091399808600928e-02 -4.850036943157087083e-02 5.427139460475004507e-01 -2.270099876588192178e-01 -1.246085519233430250e-01 7.612565502557389063e-02 1.411981777561274187e-01 -7.507536526006504118e-01 -2.017486405419330608e-01 -1.363370916466152494e+00 -1.089615129486418033e+00 -3.941112258655726230e-01 -4.457650881023269424e-02 -2.451350168220671130e-02 2.891169164460484775e-01 -4.356459820801990013e-01 -1.390094599552211263e-01 4.918330936574711876e-01 3.219403642925203757e-01 -1.981657319127737293e-01 -8.645417467387445098e-01 -5.354612827438058886e-01 -5.532291125422960087e-01 -1.516667194296967558e-01 4.712226781087486271e-01 -4.402428281951127897e-01 4.598338350702074750e-01 3.511328599824531382e-02 8.783642196802461666e-02 1.782549485993732141e-01 -3.692567200537348882e-01 -1.541949330208993163e-01 -2.640054445953205486e-01 -7.338942916444741726e-01 -7.660658902882161447e-01 -6.905800901938815572e-01 -8.797802532928757913e-01 -3.665159564022029137e-01 -9.661668263859568562e-01 -1.045717285808355490e-01 -9.491531618815748916e-02 -1.429748984238588538e-01 -9.842441739747435914e-02 1.437823115731147738e-01 -1.822259526379229611e-01 1.565620552098078919e-02 -8.784816657666813522e-02 2.390090258174399351e-01 -5.550974716295647982e-01 -6.524215698491301341e-01 2.994593558777870479e-01 -2.291515606720050113e-01 -3.933742978342999463e-01 -2.699879399053000534e-02 -4.616148047975612845e-02 2.523435620196547435e-01 -1.809840770279082245e-01 -4.129689097283906762e-01 -1.979012887426399581e-01 -6.049988836351306853e-02 -4.089067460941998022e-01 -1.614373801489500104e-01 -6.085439558778511504e-01 9.437829372326808630e-02 -4.772582101326381943e-01 -5.233073586461534088e-01 -3.930638652192911531e-01 -2.035650478610185332e-01 -6.840085880861296319e-01 3.192882987865943711e-01 -6.220013392626070337e-01 7.909639966721192239e-02 4.334595072178829001e-01 7.024690360117350485e-01 4.150365294902018665e-01 2.497916838679051788e-01 -4.242950349738224824e-01 -5.543876859021067416e-01 2.387668849305173979e-01 -1.913489766499908706e-01 -3.102571235863038623e-01 -4.074161969114530879e-01 -8.162127446485406557e-02 -3.117998461337953553e-01 -1.927441270511409122e-01 6.048200155130511319e-02 1.512953404221512588e-01 3.335465123786186120e-02 -1.522586479767734369e-01 -6.489407949664818265e-01 -1.723318698543499505e-01 -6.331498791976005736e-01 -6.850822843285636621e-01 -1.659097883568479426e-01 -5.430605717110280617e-01 -7.598487646183811339e-01 -5.578938426190392930e-01 1.127280484755256024e-01 -1.504250698919567530e-01 -2.451215295326980015e-01 3.127815065715390253e-01 -1.060731126385219963e-01 -2.815677242280568704e-01 1.637430495516674356e-01 -5.058547044557012429e-01 -4.034034269773071474e-02 -4.267292349999630696e-01 -4.313428933282320576e-01 1.346096745997198973e-01 3.565179861680738138e-02 -3.290775310590753344e-01 4.194424966292930601e-01 -3.849515476568393657e-01 2.996470492143845088e-01 1.848287795979865478e-01 3.285360337161440381e-01 1.098625837590165855e-01 -1.155902585823560258e-01 -3.174267770641198139e-01 -4.765094139364148829e-01 -9.067351514520355371e-01 -7.295694701634385382e-01 -6.286321751452832451e-01 -4.130988434804793719e-01 -3.610547695137572566e-02 1.310052302276288327e-01 2.224728076134939725e-01 -2.244259792909463966e-02 -3.604761899937061059e-02 1.536743143614877349e-01 9.541292781611684926e-02 3.482313418368617741e-01 -3.727983866424289805e-01 3.116686443140420093e-01 -1.612601338057154388e-01 2.153486158284547702e-01 -3.884630032417231704e-01 4.240533754512893494e-01 -3.947390697516530156e-01 -8.658051671407537841e-02 4.381138695110358139e-01 1.488324925955224198e-01 -5.430780451958909794e-01 3.831798135593130015e-03 2.138971028682777054e-01 -6.577675501398819735e-01 -6.519318638070282779e-01 -9.406734504489646653e-01 -1.421819545355851533e+00 -7.599550564553704257e-01 -5.523688973667754132e-01 -3.103443813379406224e-01 5.207675010286080819e-02 -2.723813897228436476e-01 -1.121902271223743364e-01 6.927131181781369662e-01 4.986575500646327486e-01 3.554252978472181024e-01 2.437376450353389290e-01 -1.348317183770967043e-01 4.511305687984691892e-01 1.690559225820219835e-01 -2.121362726196143744e-01 4.964718750741376092e-03 -6.507483545834334693e-02 2.593956429235099170e-01 1.803225587960866350e-01 2.838033025294947262e-02 -2.733775770138335837e-01 -3.287639459347718729e-01 1.710086278066427767e-01 -1.895480989451193699e-01 -3.473473310408692338e-01 -2.123479541813982352e-01 -9.129518687128014287e-01 -4.612563042907388278e-01 -1.081572041892817193e+00 -9.350256383426999163e-01 -5.413502312230691338e-01 2.428993656318945149e-01 3.201612205358915775e-01 -4.451315728446283426e-01 5.615925308793038306e-01 1.127216419303226136e+00 -1.167649603935322633e-01 3.867631991067738695e-01 1.444845251967496157e-02 -1.254498124056502573e-01 1.589319759632129292e-01 4.617737512603519168e-01 -4.061568250215259468e-01 5.022146991187464299e-02 -4.132040429517562785e-01 4.435127444885247905e-01 -4.887463719603196699e-01 2.527809587737953612e-01 -1.010993735126651250e-01 -3.208739141917400506e-01 -4.113763721364510073e-01 -6.872025357750398689e-01 -1.085148429816023673e-03 -2.564591693342075929e-01 -1.689372425824595125e-01 -1.729491210945381706e-03 -8.985842992981408761e-01 -4.364263556928873466e-01 -3.035321722195363225e-01 4.709834461208815548e-01 4.721587286519950966e-01 3.017131839370968405e-01 2.528865539778500926e-01 -4.146281586831828542e-02 -1.643517795272394499e-01 2.662237962833721716e-01 -3.396075281441464366e-02 -6.393284298752976991e-01 -1.341548214547184925e-01 -2.277770168516081717e-01 2.491730265410752321e-01 -5.728692688769902730e-04 3.629324793954261663e-01 3.373709508047964545e-01 2.930968762269685612e-01 -3.692690995370381812e-01 7.845829583057281620e-02 3.891399916732261044e-01 1.015044988195899917e-01 -1.744707303434265763e-02 -2.964723004761397052e-01 -5.359578861729062671e-02 -4.942563623190852629e-01 -6.656865619945124823e-01 -4.866509551684273238e-01 -6.977804100274831445e-01 -1.772626799718136914e-01 3.362499527030576862e-02 3.390709955151169352e-01 1.276561010660860473e-01 2.741147598618978165e-01 5.902242304579178311e-01 2.565256934385832244e-01 -2.272289926138788829e-01 -5.000936756803883165e-01 -6.705604729321635871e-01 -4.931733443565931574e-01 -5.414841531252492790e-02 -1.703276098920685488e-01 1.587186462746115745e-01 1.230281155492166933e-01 1.983484393887414432e-01 -4.344601155303535189e-01 -5.076277240630986398e-01 1.422195713752240076e-01 4.360293691800321558e-01 -4.189746913061951905e-01 1.869671628198688040e-01 -5.471866801941936975e-01 -1.898781423576852423e-01 -1.171157148678099391e+00 -7.120778533426393997e-01 -1.385725212202405521e+00 -7.534084236223982378e-01 -4.233458139667644060e-01 -3.273386387061906211e-01 2.525552192494517900e-01 1.262123722519493674e-01 1.662833638790298108e-01 -4.094228438916917012e-01 -6.663309931349153947e-01 -2.374062601685463791e-01 -6.539983026382621967e-01 -4.069050770587054888e-01 -3.258807494866354793e-01 4.451924948706975083e-01 -1.173199736714574115e-01 4.196670189274022134e-01 -4.528569498128318105e-01 -1.781768660962670114e-01 -4.682425634155920058e-01 -3.534031821498974102e-01 -7.001991450079855794e-02 -1.156400808062952625e-02 -7.446096099490370768e-02 -3.873669526166192423e-01 -4.084900187879657030e-01 -2.363002587649805919e-01 -4.129087054684169034e-01 -4.151571608672977032e-01 -3.934035014433145960e-01 -8.082895173827850943e-01 -4.784461701429932323e-01 -4.774097308963883290e-01 -1.995458773181737755e-01 4.909172419277167514e-03 -1.258505904751265059e-01 -1.187205703283772118e-01 -2.699445685333032863e-01 -2.648492459625268469e-01 -6.396774010174158809e-01 -1.621749121700717944e-01 -3.306427999866546896e-01 -2.357800828449173602e-01 -4.902941344373650256e-01 -2.258174653940248078e-01 -1.935079547589775018e-01 1.227367144247124287e-01 -3.853444259419494533e-01 -1.343041845160195258e-01 3.444757670336970334e-01 3.942776596240626374e-01 2.782654798667585361e-01 -2.064144091872333886e-01 -1.447391381092786589e-01 -2.127180689236370381e-01 -1.893843506602248261e-02 -5.828032678356638296e-01 -5.834494655246204031e-01 -2.106550338080537543e-01 -7.653969707365372299e-01 -4.185689342520271250e-02 -3.608761145170286122e-01 -3.178834164365061943e-01 -4.851756972836449577e-01 -3.141600796358343661e-01 -1.347675117368338227e-01 -7.799709363958772235e-01 -3.445043183193893799e-01 -2.913985125651756269e-01 7.539401225132456863e-02 3.141829853734248168e-01 2.765743332877301786e-01 9.888465249167750770e-02 3.137997514113979314e-01 -1.553331451356873283e-01 -1.976584446026438402e-01 3.868842108639432009e-01 6.400853644075436832e-02 -5.270351624491745324e-02 5.103613203656134356e-01 -1.601317310581925613e-01 4.774469184520779841e-02 3.571542977322239021e-01 -8.557579712795938820e-02 9.364303917060995408e-02 -5.939303086685755462e-01 -6.090160075238644222e-01 -5.023035828228673561e-01 -3.467456020252969173e-01 -3.531796781941939356e-01 -3.569057776774187118e-01 -1.697290174225890291e-01 1.218661934659145130e-01 -5.070223660832693380e-01 -4.377913650572041737e-01 1.913988177491756648e-01 -5.905226114812470728e-01 -6.013374487255185308e-01 -1.925078042299590286e-01 3.812311725894273334e-02 -1.334185976818217934e-01 5.900946793109050625e-02 -4.705936786440720887e-01 2.321555816071859193e-02 3.558275366516261418e-01 -4.915225263799031796e-01 5.671746870761447401e-02 2.926358138548634247e-01 5.409639143808452760e-02 3.374582727293556905e-01 3.283126223923382714e-01 1.282618882551503081e-01 -5.258439090777342617e-01 8.730893207590958299e-03 -7.187483063933408634e-01 -5.299132892307162335e-01 -4.970976269671784076e-01 -5.304890553207380899e-01 -5.563138238891376375e-01 5.005814770962274673e-02 -2.780436967441222706e-01 -6.726050198250222989e-01 -8.033764937416404406e-02 7.963814917607064947e-02 -2.056913765833461027e-01 1.204344563448610517e-01 1.288577231367799558e-01 3.272447937290906550e-02 -3.922997658873837445e-01 -2.917392165409926630e-01 4.605954539109380352e-01 -3.999072747403727979e-01 5.301055718764349778e-02 -8.836903110720108201e-02 -3.024612181789675391e-01 3.398943419435672686e-01 5.765869574357608274e-01 1.059276722747296354e-02 1.825892827852787226e-01 2.661982196889349783e-01 -3.696785718565930856e-01 -1.628446735118269650e-01 3.017454833025853267e-01 4.751175900414579822e-01 -8.211900521195558689e-02 2.186450734863345791e-01 -2.407460513184976891e-01 3.021560536929203677e-01 -2.089056750862011425e-01 -6.617707381874745609e-01 3.021892390653354021e-01 2.645503517256669879e-01 -4.048293504624521089e-01 5.702672067540099504e-02 1.064776292261742224e-01 2.641287830255455993e-01 -1.083032194350435490e-01 4.213830218145305784e-01 -7.532838156364336790e-02 1.712533771906560032e-01 -4.643425281499885537e-01 3.491475539514130588e-01 9.101730320956562259e-02 3.665936641888856706e-01 9.268166291554977287e-02 4.981154587096690012e-01 -2.607926913103034844e-02 -1.196125032726082921e-01 1.483174727219704614e-01 -5.574144659132291429e-02 -1.829890072163301018e-02 -2.468208435087362526e-02 4.782198807403018614e-01 -1.833893069844609314e-01 4.174596148443752708e-01 -4.274690391352313212e-01 -5.436986147643466452e-03 4.060888553786346500e-01 -5.330346964652722397e-01 8.074546703288019989e-02 4.312520079927218419e-01 -4.308365031347700103e-01 -3.588693532705528599e-01 -4.823206399065593231e-01 4.548893721512452526e-01 3.600412655647223792e-01 -4.610363323822213033e-01 -4.076631568372209857e-01 -4.044716193420050399e-01 -5.115427635186510225e-01 1.667012813561863649e-01 -4.799443710032468280e-01 2.630430081447238805e-02 3.638006779568380700e-01 2.595716435736767358e-01 4.184078074735551600e-01 3.323081046685551990e-03 -1.363711368990985495e-01 3.050372470074440567e-01 3.185316736897310652e-01 2.726574681638383457e-01 -8.002416257653562071e-02 -1.671687192326785920e-01 -3.844725438762109926e-01 4.000788176428579646e-01 -2.620292186428573866e-01 3.684510386766117751e-01 4.596467219511912727e-01 1.652882386956178729e-01 -4.380261663918124659e-01 7.155115837140162138e-02 -5.082890923746726797e-01 2.135409628497515200e-01 4.536776700485922048e-02
2.194249542118294760e-01 2.461794282677312040e-01 -1.691132976707027391e-01 -9.142690861798964674e-02 1.107288509849695818e-01 -2.852834529378495132e-01 3.635695339089268785e-01 -9.050908462775299201e-02 -8.385703486417118990e-02 -8.566560557726674713e-03 3.344109228134336531e-01 3.165376911965118722e-01 -4.425560074973043378e-01 1.576148141959782534e-01 -2.948524229308318034e-01 -4.968922134483194641e-01 -3.090315558132074036e-01 -1.247898595157281992e-01 9.326096475866473001e-02 1.292082376662491983e-01 -1.235781561731500583e-01 3.220468529923427026e-01 -2.999429709318373050e-01 2.528750314532929311e-01 3.442865224373575783e-01 -2.017928057622909999e-01 2.886506792950376266e-01 3.066466723670017158e-01 -1.247388597036458296e-01 3.162370102254193904e-01 2.613275273542515764e-01 3.080654730259578811e-01 -4.328716313970525920e-01 -1.771825931732594339e-01 2.350685869124379823e-01 -1.293420333840943903e-01 -1.783306145683400123e-01 4.830420708588772927e-01 -1.624654896813191585e-01 -2.078163142865133428e-01 2.004841567912979960e-01 -7.973009048514875796e-02 -4.419305398662344841e-01 2.548663514745379000e-01 1.531411566017595316e-01 -2.164359348390987314e-01 2.592350385318080153e-01 3.613190806448901560e-01 -4.682664933327207457e-01 -5.096697682886545122e-01 1.829543083337090981e-01 -3.485893792143351377e-01 -3.412907473412873927e-01 -5.979983065372539326e-03 1.896461337548251136e-02 2.187168648969220752e-01 -9.258938592030564740e-02 -4.818519568008508003e-01 4.334203044029276419e-02 -9.020436587807056233e-03 2.243155517448078562e-01 4.163117345833247662e-01 4.676338706496696584e-01 9.296986928774615688e-02 1.475703711410222829e-01 -3.053253734128027475e-01 2.093258422077377001e-01 2.197885053806283018e-01 4.122554027617301720e-01 -3.703094256047309019e-01 -2.367344062470769506e-01 -2.806043299224793564e-01 -2.970723078417878971e-01 5.093515760753084543e-01 -3.719338839507627115e-01 -9.310437583953073970e-02 -3.605974871293668449e-01 -1.458637758294751008e-01 4.352385212446906460e-01 4.024104408018559509e-01 2.281588087105363705e-01 3.390130432120725956e-01 2.149576473527577691e-01 2.277117096438049104e-01 3.705631150436681231e-01 4.212680917289506333e-01 2.685420796939504973e-01 -5.060944546065155869e-01 -4.708155320135216648e-01 3.797891897445787035e-01 4.889837045868172111e-02 -1.817596566943906478e-01 -2.161874441957723769e-01 3.183454705782875482e-01 -4.428632659418025863e-01 3.238160717339447214e-01 -1.457258659477431162e-01 -1.572371306726867701e-01 -3.735395913164690773e-01 -2.928592094054515704e-01 4.065624278250834500e-01 3.873994782964543804e-01 1.576885425045821687e-01 6.339339630011329996e-02 -5.800476379186879361e-02 3.811719699999913114e-02 3.555803785705357045e-01 3.666604108686029040e-01 4.663101084880973413e-01 2.605698121502303399e-01 -1.339812778249763747e-01 -2.401629580531286223e-01 -4.143874948809523895e-01 1.064897608787111621e-01 -3.078440396606659801e-01 1.901063369666170788e-01 -1.699169298052708166e-01 1.377452580019878359e-01 3.920959392043694702e-01 -6.488010901142475528e-02 2.559138328102109061e-02 8.294089814989880072e-01 2.174452894110039114e-01 6.638230868569301724e-02 -2.246563256622385596e-01 -1.135004323161375034e-01 -9.581933539728214322e-03 -4.531184626196262388e-01 -1.688613786337850864e-01 -2.349668639083550836e-01 -5.024867067638406626e-01 -6.984954977021355649e-02 -5.885042804187384791e-01 -4.672385818151328918e-01 -3.288389946882905868e-01 -4.821731337393411754e-02 1.710174551002041077e-01 1.933121845639167724e-01 2.524926424642277567e-01 -3.272656479180809930e-01 -2.467981059093412866e-01 -2.148811460096395065e-01 3.285726744755427253e-01 -1.776624592809815939e-01 4.602641546057429367e-01 2.577207215381313588e-01 6.524549917834561175e-01 3.214252966254094179e-01 3.662620489032074600e-01 2.882119545175362840e-01 7.186531615309119658e-01 8.820995049591574544e-01 3.681501134710910006e-02 3.786148369381794280e-03 -3.958394625932117883e-01 1.452582975773512031e-01 -6.822869031949218011e-01 -4.836330297765304431e-01 -9.824950887480139450e-01 -9.123532250970008972e-01 -9.433645334812645888e-02 -5.773399051067430038e-02 -6.811225999709261680e-01 -1.547629544891428732e-01 -5.806295984050888759e-01 8.797813438035519129e-03 4.689768589076938055e-01 3.711959120840627735e-01 3.141313882560514692e-01 3.047312353763430570e-01 1.895017342402571525e-01 -2.849619668680579698e-01 2.570084827144689110e-01 1.216251032557829903e-01 4.648307774657527425e-01 3.139921211194909301e-01 3.847569004155284578e-01 4.421757052264102539e-01 -1.705136797896014966e-01 -3.244685212289006304e-01 7.704471771157062054e-02 -4.465909512529808167e-01 -2.081138331507518535e-01 -4.793859165832800029e-01 -1.133958935027622905e+00 -8.969911195860469366e-01 -1.119731560836183748e+00 -4.186968615938131966e-01 -3.985072300641834819e-01 -9.230028785200639074e-02 -9.090808815805155874e-01 1.756116789406161338e-01 9.760919329564767682e-03 -2.973764485514287514e-01 1.360071024676716700e-01 -3.607341533227946817e-01 -6.394600675765745035e-02 -2.817845133291350668e-01 -4.342593156173202296e-01 7.351374134551737216e-02 3.732158484931779596e-01 -2.307841605506226745e-01 -2.191153696238004323e-01 -7.811175701974357177e-02 -2.015874089783594725e-01 -4.457902337693301353e-01 -7.014466242844118460e-01 -6.499183464618372985e-02 -2.468285053651106051e-02 2.754983107304760370e-01 1.084243015103169006e+00 3.896005903739429566e-01 -5.133191504216172429e-01 -2.193511033733054894e-01 -8.923669736165694699e-01 -4.666660747526071296e-01 -6.976825291918227201e-01 -1.124204201106421497e+00 -4.737842267917243277e-01 -4.315315945491817184e-01 -2.629935365632117272e-01 1.718421485099987100e-01 -2.868948549067114051e-01 -8.994776810288070482e-03 -4.445218771977505479e-01 -1.042297181032024594e-01 -2.622730070638446542e-01 3.728437616812305122e-01 2.946519019342301871e-01 -4.764117711878292916e-01 -6.240910407226839540e-01 -6.953804983219079305e-02 -8.663729291835017277e-01 -6.376822859054359638e-02 3.726660989183883665e-01 -6.205552211532435747e-01 9.033798959156238428e-01 9.368150982180425412e-01 5.488940336584703372e-01 -1.515257698330258473e-01 -1.006608509006707841e+00 -2.969074012252668204e-01 -5.697691831526654482e-01 -2.369335545834836132e-01 -2.990416280616838285e-01 -9.400582813873019361e-02 -8.503135865668740578e-01 2.181086678006495527e-02 1.370325420878808209e-01 3.130483751474223419e-01 3.734284721436240684e-01 3.229096891984972184e-01 -4.908229645595344470e-01 2.147392383048254624e-02 5.409311358477575729e-03 4.182974893370175473e-02 1.570504912413330234e-01 2.418210395937300805e-03 -7.111933153891307757e-01 -7.453104583591132482e-01 -3.294028468678008026e-01 -2.159701185372281673e-01 -3.237167133557677379e-01 2.080415715916252364e-02 1.176236495444231256e+00 5.756990353873366884e-01 -2.977708501787562634e-01 -5.808688951560685432e-01 -6.297721832397789044e-01 -7.258074415188050521e-01 -6.301375833378924929e-01 -3.864826354401509900e-01 3.559277495387566659e-02 3.054035544993280449e-01 3.457382834545795203e-01 -5.199313761434312120e-01 1.969852833487278909e-01 -3.282627550311065234e-02 1.853798785264639259e-01 -8.539377046348177458e-02 4.338829406460675830e-01 -4.309597241593094430e-01 -4.562244966422223658e-01 -1.789604483115965483e-01 1.079137558915482520e-01 2.717280126587672817e-01 -4.598167726196621813e-02 -8.836264367437951517e-02 -9.177643449517787211e-01 2.130626779493153267e-01 4.641273414687155374e-01 3.970422244100923481e-01 8.330341511916251884e-02 2.188778155860108265e-01 -7.786469656905091741e-01 -7.840347075509026542e-01 -1.118692381196012775e+00 -1.033383680213729061e+00 -2.803544362668636269e-01 -4.258168522469224504e-01 5.007599854638004055e-01 3.428367401084229660e-01 6.000903278869142987e-01 5.418204621560276935e-02 1.437127396656428524e-01 -4.301481230076503737e-01 6.427250369057272393e-03 1.332973317007606906e-01 2.913947998782026039e-01 3.572729412849091624e-01 4.116407061043374921e-02 -3.752487993492381047e-01 5.842455202830973242e-03 2.008256556789713987e-01 2.762512483693330689e-01 -1.426889639286866573e-01 2.217771762959623028e-01 -5.173535849378118473e-02 -8.673571615888751862e-02 7.522594122239342207e-01 6.888234039742661130e-01 -7.096099760509771287e-03 -1.020194073345768171e+00 -8.133285789024592427e-01 -1.057047206039773701e-01 -5.420292358202482008e-01 4.916798639610761579e-01 -3.784390889760135268e-01 -5.673207230696378778e-01 3.563174625185542427e-02 4.979917650914665317e-01 4.259151251000668492e-01 3.998966729238417339e-01 -3.871605369548269948e-01 3.105360676552217924e-01 2.819413291556267520e-01 -5.089525451782447307e-01 2.013782464793321680e-01 -1.522429007760680826e-03 -9.685203632584662992e-02 3.095099265193742566e-01 4.763594270226165217e-01 2.380062180453650367e-01 1.737456678403197230e-01 4.262795910758862550e-01 -1.712514657395075302e-01 1.002026726917856353e-01 1.955832487346236548e-01 3.930891453093383892e-02 -4.889403412011660843e-01 1.181213441065768754e-01 7.412374167618555887e-02 8.545354978549382641e-02 -5.040075955960391374e-01 3.704714261525350605e-02 1.178599743380918663e-01 -1.729267322734934775e-01 -1.433177312147757704e-02 -2.777261859935551899e-02 3.427442090696799504e-01 4.475686924751672846e-01 1.260571264740566466e-01 2.225316850200210750e-01 -2.506717851990873380e-01 -2.776367151097886010e-01 1.149591792822853981e-01 1.811475422140758906e-01 5.257961447283674428e-01 -3.296249015768382834e-02 2.918736868092018932e-01 4.219066744066071184e-01 2.272685865814058070e-01 -5.740230486990737652e-02 -3.405730574060982785e-01 4.145233659061383635e-01 1.272733135935981419e-01 -1.826639356067858710e-01 -7.795203942007601361e-01 -2.677502188103887404e-01 -3.035266654037880318e-01 -6.828205692315685027e-02 -2.971790719074284826e-01 2.554245032405835780e-01 1.544940454996120149e-01 4.949726535981278097e-01 -5.952143677968347452e-02 -2.935263321020299340e-02 5.015799752036529391e-01 -1.382400790873636598e-01 1.475419987681134693e-01 -3.920348346981549770e-01 3.823120949758459508e-01 7.083352172480146536e-02 -3.426969074201217935e-02 1.187863544440550118e-01 2.260703472929706803e-01 -1.612360651573388759e-01 2.603736676051248700e-01 3.223062249331191675e-01 -6.676263512429997382e-01 -2.635504453787496648e-01 2.977915049076270138e-01 2.917821915139654498e-01 -2.228218415429657207e-01 -5.529265119244676230e-01 -1.272984431981096787e+00 -1.064899375015906591e+00 -9.937985781356707404e-01 -6.484971210476770942e-01 1.452000786932059750e-01 -1.765144701518218950e-01 8.150970392398297626e-02 -2.992047854836097920e-01 2.102169385334182738e-01 4.016022346619975425e-02 3.680491916739082603e-01 -2.684058701550081083e-01 2.455763492009388205e-01 -1.451271713658337792e-01 -9.301068604743895074e-02 3.632877559486539232e-01 -3.696173822917679375e-01 4.455570153942839395e-01 -7.404287892447468378e-02 3.558712187070217081e-01 -2.935284139527805092e-01 3.181373596828743766e-01 -2.683988811043739875e-01 -6.357791136576832480e-01 3.233723415164688753e-01 1.106596366797991081e-02 -7.149726481016702162e-02 -9.271938518534040830e-01 -1.578211693023055417e+00 -1.163226401098385931e+00 -2.029032506625717269e-01 1.655113162691079498e-01 6.298570632544268078e-01 1.496546003088016219e-01 -7.304115938405336683e-02 4.860229519668465836e-01 -7.210697770318445776e-02 2.958806452106726992e-01 -2.468002981864565459e-01 -1.113092137589956759e-01 -4.314279422254777563e-01 2.656507510083827572e-01 1.349732922621893483e-02 6.161188928488968430e-02 1.261390074592174670e-01 -5.014162127658925439e-01 1.045750724049696739e-01 2.858095964675809175e-01 -3.594399514773037319e-01 5.316474149188973319e-01 4.143219993796230516e-01 1.177585118064275183e-01 3.872392147085219061e-01 5.466022358399128533e-01 -6.964020131787903578e-01 -8.141570237227955253e-01 -1.454210573357384018e+00 -1.101116554150741722e+00 -4.537119988511178481e-01 -1.185894765264045025e-01 2.408283515346838766e-01 -4.515583420571105400e-01 3.061614985868375549e-01 6.704341938651681154e-01 9.629556268397169994e-02 1.846220688096797402e-01 1.322553080618734667e-01 2.589648955012321396e-01 -2.066037744412633770e-01 1.968623545957622900e-01 1.053136978198410123e-01 -1.669586166529193616e-01 -3.093081859462470246e-02 -4.729601110124786456e-01 -2.356260897508158925e-01 -2.680607371651742565e-01 4.661582439508589193e-01 4.450209348869843540e-01 6.287697985941010925e-01 3.248611692250054639e-01 4.621429302949458390e-02 -7.305836468858528665e-01 -7.586583194787217543e-01 -1.077962690482886732e+00 -1.113283765050395280e+00 -9.370862287445731464e-01 -7.598391957286242393e-01 -4.754249456341546609e-01 1.446871938677739278e-02 -1.873336201474304352e-01 4.781050882695059290e-02 1.818387023757758736e-01 7.868794527949767303e-01 1.040179563197396462e+00 -3.165261934792674148e-01 3.168724786128244986e-02 -8.088565390070030781e-02 -5.973138520464329471e-01 4.206135177067719111e-01 -4.954569659167488149e-01 -9.373364300561405626e-02 -8.262928238525080182e-02 -5.185322163479956226e-01 -4.096437715481979214e-01 -2.256024465119563505e-01 -4.438895558683085274e-01 -3.138979147464971420e-01 -3.526320025462591212e-02 -5.583177901236193730e-01 -5.334964246527618137e-01 -6.819361554822197524e-01 -1.011199843576375601e+00 -4.229192610020810483e-01 -2.135729171026535811e-01 -7.283847762998957309e-01 -4.098541489607412935e-01 1.867194896715872882e-02 -5.703010930858102429e-02 2.361148267850817217e-01 -2.977533042134642427e-01 7.759953229848135514e-01 5.680484641220275854e-01 -2.697328456343833225e-01 -4.199378691498423938e-02 1.790461341016792718e-01 3.125105254470057076e-02 2.493234488735459331e-01 4.815226122042818441e-02 7.844843579483498641e-02 -5.141247933765425993e-01 -2.964265787247123418e-01 -3.617489835808129217e-01 -2.797851273593096599e-01 -1.180821048869270667e-01 -7.781593975411103814e-02 -3.678840097288251232e-01 -1.111427928279509425e+00 -9.666435803388734316e-01 -4.117563525891160814e-01 -5.693184773759061290e-01 3.839441495202120663e-02 -8.975954391884884975e-01 -6.650420370760055100e-01 -6.006689126295788883e-01 -1.502423742369274513e-02 5.830931890539728935e-01 2.241997592339046719e-01 -7.456101591825278763e-02 -7.478539019196166204e-02 7.211675990223276322e-02 -5.036315531065904683e-01 -3.749415783546684033e-01 -4.225352125046450413e-01 -3.129408297468079803e-01 4.835561718638289319e-01 -1.429410833971360983e-01 1.656302929775395893e-01 -5.095157771136330505e-01 -4.833741539265938303e-01 1.349197160937778278e-02 2.239270084880258527e-01 -8.906559698742730347e-02 -1.385549706723429031e-01 -1.675030265841190580e-01 -6.434697262765062264e-01 -6.371034530096754134e-01 1.726987200316812757e-03 -3.341807369822730189e-01 1.172669982112306553e-01 5.003705311346661189e-01 3.977807714136828987e-01 1.536828308719947189e-01 5.078985338753966294e-01 7.400644674506222653e-01 -4.276867493896148453e-02 -4.166835802322164661e-01 2.329048686160558601e-01 -5.932503831126398897e-01 1.114056082202602958e-02 -1.029613408492495719e-01 1.341448702034837293e-01 3.417521516375277568e-01 2.770373042099876226e-01 -9.383424703569458181e-02 -2.416416256218724135e-01 -1.720819328035947393e-01 -5.456297789200680315e-01 2.007374369282397264e-01 -2.452240579344110993e-01 -4.111906418431060528e-01 -1.537273699391344117e-01 -7.909572036062080258e-01 -9.748910007147679746e-01 -3.685351558908769309e-01 -2.042788542902060911e-01 -1.248564150455610047e-02 4.188500979284565107e-01 1.614203907548065198e-01 -2.272053624318048637e-01 1.289895708395473461e-01 6.280094867997063068e-02 -5.906173829297744343e-02 3.238045770940833346e-01 -6.821485592317148017e-01 -1.859507252752963802e-01 -1.322273165253715355e-01 -5.202702070480096364e-01 -4.666464479867876713e-01 -3.197028013502580257e-01 -4.956212870494509093e-01 -3.191253202827613045e-01 -3.206484201391865962e-01 -1.079427958787852193e-01 -4.953061769361311040e-01 2.777268910396699653e-01 5.618440663839312232e-02 -3.682519278494334469e-01 -5.658802423203192211e-02 2.548001299658963492e-01 -7.617698279847169296e-01 -4.423200863389710746e-01 -8.619355144580704842e-01 5.964355764575669794e-02 -1.214371202784474829e-01 7.802964525732593304e-02 -4.381727950206216748e-01 -2.241719587335405106e-01 -1.079368361670382248e-01 -4.351810337560451103e-01 1.430249879436972793e-01 4.630377201247735941e-02 2.235294806452907124e-01 -1.070759402302137453e-01 2.958783333036226759e-01 -5.900942700601614632e-01 -2.181058987649111269e-01 6.803792744054160124e-02 4.526207079654515630e-01 -5.012960652090273639e-01 -3.246457995012361764e-01 1.320822014930277122e-01 3.141233363172752369e-01 -4.139995164303407194e-01 7.952609487109769948e-02 -9.855688671520185240e-02 -1.306912933695318635e-01 4.306353211398555314e-01 -1.567930942273994266e-01 2.079159882311246432e-01 -6.007534724148654304e-01 6.608423349560897143e-03 1.615136457429468819e-01 1.719841789862470161e-01 1.076456772607972678e-01 -6.015895070495237695e-02 6.708701898046838356e-03 1.718578406239898160e-01 4.210571463761575983e-01 1.201211340757226548e-01 1.618380766867827392e-02 1.495838367505975264e-01 -6.443215843192932057e-01 -7.766208698910846975e-01 -3.931688603026749912e-02 3.928235600675551026e-02 2.733856243391419999e-02 -2.416240013818671539e-01 -1.637935727687680754e-01 -3.390793622195910073e-01 9.945758063234209911e-02 -2.921251466037472766e-01 2.478910888056969630e-01 1.436556274198311500e-01 -3.114109329433457918e-02 4.014959697907183878e-01 4.262588965884344105e-01 -3.095927739474125806e-01 2.132373489462449923e-01 3.874748894790386311e-01 -6.562394744921216938e-02 -1.962304408898164765e-02 -1.312380807332552413e-01 -3.708266159961107200e-01 3.303840537680026723e-01 -9.393419514759840383e-02 2.398845247527112423e-01 5.004097489703298596e-01 3.876961420248473122e-01 1.735466195954717961e-01 -1.437718667506003578e-01 -4.337448427750539848e-01 -5.908657246551033415e-01 -7.349538274188681386e-02 3.257301608766602352e-01 4.580792566377908104e-01 3.791154018331855946e-01 3.605443406026791475e-01 2.968268482632085981e-01 -3.582012725068345893e-01 -1.687948459163141068e-01 -3.682429100272730516e-01 4.602379803297913519e-01 3.595561239985519131e-01 -4.949535940416478486e-01 1.297164852333065888e-01 -1.593268090288725014e-01 5.552997018184873124e-01 1.702537682259038510e-01 -2.927817743150808449e-01 3.085618290841692368e-01 3.255330507955513930e-01 4.919964606181926881e-01 6.814282618469897912e-01 -1.189873364831149222e-01 -2.444346330622171881e-01 -1.345581676578101460e-01 -6.542146817052554852e-02 1.857930056543791175e-02 3.808306245317887306e-01 1.578585805827323885e-01 -4.737268856796589267e-01 -1.946602960931882453e-01 1.972855422654280211e-01 -1.243836753143288815e-01 7.618533397831438181e-02 4.433413021812336874e-01 -3.680377688201516562e-01 3.382173663406995989e-01 -3.586962285731175037e-01 6.513751136865010560e-02 -2.513923970758498716e-01 2.926879345604709304e-01 2.202457089401390899e-01 5.446260708875627632e-01 -1.270807005078895824e-01 2.799975619047905262e-01 3.307820079027202209e-01 2.124881559465427172e-01 1.594585321929076205e-01 4.339872114930565239e-01 -6.757149723502064997e-01 9.096127634858358624e-02 1.975388343246901046e-01 3.787395335174717492e-01 -1.613236470557642410e-01 4.437180856937684159e-01 -4.567703842601363307e-01 4.401231760864520171e-01 -3.682314730162199456e-01 -4.932696578020201450e-01 -3.347106657476499603e-01 1.496626280697475886e-01 -1.079914617006034888e-01 -4.697611044497689292e-01 4.779444262200527316e-01 -3.624400875536470390e-01 -4.558814779248717142e-01 -1.424039812668305427e-01 4.846350693884164951e-01 1.571892755517313028e-02 4.688623548388181073e-01 -4.671105335444639683e-01 -2.977062240081690958e-01 -3.891102757431404990e-01 9.889061576752361526e-02 2.621121524695548266e-01 -3.978750175059476146e-01 -2.121598934529533853e-01 2.985544745230112040e-01 -1.185124669399548747e-01 2.055325759230028360e-02 -3.850201428930680181e-01 2.822888538125322144e-01 -4.343901007244466150e-01 5.224673281950538428e-02 -4.486860409129530547e-01 -4.467422649596268780e-01 2.482401795704881342e-01 -2.847061880592268723e-01
-2.094285451107192053e-01 2.207007599137789933e-01 3.637471566650215538e-01 -5.171763430071378842e-01 1.909725432038778814e-01 -1.224675978792017922e-01 4.301240044655976202e-01 -4.437633213621954287e-01 -3.738301709072004986e-01 -2.059072004484795715e-01 -1.704008596932677089e-01 -4.068219598845872892e-02 4.836110147071907839e-02 -5.040068075818513460e-01 2.432472480074834575e-01 3.110205569985334886e-02 5.002696433331143416e-02 -5.546061601284523607e-02 -1.207285258017953694e-01 1.970228796710504493e-01 -2.627233160172840476e-01 -2.010388661803055588e-01 1.032349866031267022e-01 2.235426497534434842e-01 3.548802954978680368e-01 1.548444010397494741e-01 6.756465518331701559e-02 -2.691826066473043122e-01 7.505094697099457500e-03 3.659063135490411289e-01 -2.073555971031330325e-01 2.570196844316822160e-01 2.316098976548470068e-03 3.071209769573964299e-01 -3.833063319316408757e-01 -3.009169906939738182e-01 -4.278435262605277400e-01 1.735559655240045684e-01 -1.383368446358332893e-01 -4.777126189622028507e-01 -4.173722399413158923e-01 3.050707037129239407e-01 -1.457532455231472512e-01 -3.461756141634786399e-01 -7.001286218148117246e-02 -2.558333743613142031e-01 -1.733030614867413222e-01 2.144872843098994675e-01 4.493560011536799209e-02 -1.800281515378523156e-01 -3.644080625781201954e-01 7.105318595036315410e-02 -1.913786190321288549e-01 -2.796809145374296035e-02 2.339239608946600824e-01 -3.964650394377489118e-01 1.443714313666286386e-01 9.295696965025991576e-02 1.899318402564597330e-01 1.022225529248515924e-01 -9.919642431260948176e-03 2.638521519083004696e-01 -2.528660450114029179e-01 -1.690377459220248624e-01 -1.104672292904736036e-01 4.645006771758470321e-01 2.878337324886587889e-01 1.338641526327297993e-01 3.822684479952924708e-01 7.998329916250042360e-02 -1.284262170576206119e-01 4.002910618332228831e-01 2.400823887553846583e-02 1.258992937259786893e-01 -1.417611587165581444e-01 2.903524202199762594e-01 -3.965060832394046164e-01 -4.157849691961315042e-01 1.958815852553027759e-01 1.029746257266728193e-01 -3.419949477408542049e-01 -2.910689316670400095e-01 -3.063974127268618286e-01 -3.380147078125856491e-02 -4.847244998044626385e-01 -3.486975691346659856e-01 -2.883500717575767092e-01 -1.496841410741467371e-01 -3.506488271937793777e-01 4.270124703945839539e-01 -1.909299599500499101e-01 7.077430863654228521e-02 -1.136567045096376072e-01 1.751219260395429911e-02 1.721143451597980656e-01 3.276183215792873860e-01 -4.771307615838028815e-02 9.046008835677483984e-02 2.168316026149990083e-01 3.737201170606430645e-01 -8.205900239770284876e-02 8.994021362484969084e-02 1.311874016612227800e-01 3.791947777895632310e-02 -5.269024709933232964e-02 2.730195907248087472e-01 -8.040593395694206613e-02 7.230187841147889261e-02 1.726105894752562320e-01 -2.086632753605303231e-02 -4.926387777183525718e-01 1.625931793162162797e-01 -2.456975913217460117e-02 3.248629017939728691e-01 -3.956937578632959696e-01 -3.507265915700398806e-01 2.370726467357055223e-01 2.857211865050356958e-01 4.809606516193140058e-01 -4.036823467021511402e-01 -2.687698342423502362e-01 -1.504126010520925871e-01 -5.949419701326786464e-02 2.511216727898727408e-01 4.797172733492230945e-01 -3.174781350446294614e-01 8.672487373540858913e-02 -5.138786805643145161e-01 -4.799562744309573969e-01 2.263072786418713067e-01 -3.277595228446067432e-01 -9.906850884347802311e-02 4.557077572454333314e-01 -1.977867800444114976e-01 4.932471819553615466e-01 -3.345130606575759113e-01 -3.605302568200084989e-01 1.322908441707287552e-01 -2.374706492219346432e-01 2.403256480126290673e-01 -9.290954540355232660e-02 -4.508039841989356367e-01 -4.623170724877468940e-01 -3.976034871670264259e-01 -1.027145225174979637e-01 -2.501992408545921243e-03 -1.746656350621109965e-01 1.220954844362076852e-01 -2.729008016928815561e-01 -1.829777723941715672e-01 4.281635678862492633e-01 -1.400628231091077293e-02 -3.332962773524342781e-01 3.572284720169527361e-01 -3.829309234696269826e-01 -2.275281166320694270e-01 -1.600152752563016034e-01 -2.112048822315355512e-01 2.056841457121161287e-02 -1.691761640658039911e-01 -1.371379670764211189e-01 -2.918863177129180642e-01 -1.126743742839136225e-02 -3.279662962273238724e-01 -3.209638797225821683e-01 -7.468563879035017283e-02 1.013374916082196570e-01 -1.059160799074638226e-01 -1.609728977508823322e-01 -2.402962090024554076e-01 -8.809988802624679760e-02 2.679550353996110745e-01 4.757394800991308209e-02 -9.218953648774470822e-02 1.400454095763813966e-01 -2.444473593393887700e-01 4.797059600350624953e-01 1.782572336945046840e-02 -2.317168954725107866e-01 3.860142919836744291e-01 9.970012985188095311e-02 -5.007591621595314235e-02 -3.018499766350337121e-01 -6.151777018636084282e-01 -2.834096281677622731e-01 1.812673021104680426e-01 1.733158264922209923e-01 -2.316957668931789519e-02 2.257420884511866233e-01 3.733854526924653694e-01 4.324348572354705378e-02 -5.322617353431881027e-01 -9.554554603689888181e-02 -2.786512849673549730e-01 2.485487915720816232e-01 4.465382743473730320e-01 -7.596032648753997529e-02 -1.378142832550000585e-01 -4.774289454473648608e-01 3.668905837969828609e-01 -8.394424156447015395e-02 5.211789220388666211e-01 -4.978076615649219133e-02 -9.004903254191681458e-03 4.892213816535677662e-01 2.373148919002796287e-01 4.861984449198214486e-01 1.385745043964956187e-02 -5.940039930833037607e-01 2.486441963041704506e-01 -4.806710600800668809e-01 3.705980993083202168e-01 -6.218539683107956323e-02 6.159405482458437525e-02 1.618245106862085947e-01 -1.835713361385712394e-01 -3.098150963010975478e-01 -4.372629188286792923e-01 1.529011667566713417e-01 -8.526416580163075076e-02 -3.793901093363434840e-01 1.131798759450662051e-01 4.026794091258935615e-01 -4.559397356843508664e-01 3.678222582865958157e-01 -2.536200884780195897e-01 4.452020575134542635e-01 1.396907793124502195e-01 3.587149251465034938e-01 1.440233470037948771e-01 -1.028232248247385183e-01 -4.082856583937304884e-01 -4.758152137560522910e-01 5.418789502607250508e-02 5.073220718123623296e-01 -1.655098053268286018e-01 -1.740055431987376222e-01 -4.816604053579103262e-01 -9.428714009666186446e-02 -4.169973504171757550e-02 -7.542147560124701222e-02 -3.312119713184313308e-01 -7.846896300517185452e-01 -7.256340571260377903e-02 -9.658240260590916781e-02 -2.854149392216531189e-01 -5.212217512347486759e-01 -4.719809241107079112e-01 -7.809006932493312014e-01 1.434454415676874109e-02 1.144953079898216874e-01 1.491644257701098542e-01 4.708543039179858836e-01 2.512635898014761379e-02 -3.346957717473644789e-01 -2.662303997140932355e-01 -2.396744859150387319e-01 -3.809515323362678424e-02 -2.246700388996845932e-01 -1.783973345976483937e-01 3.963668859892191532e-01 4.075118777588767616e-01 -1.313513680149910878e-01 1.080372702316365757e-01 -5.563255676120303361e-01 -1.969218086051408578e-01 -1.570299038037826500e-01 -2.184693156428292315e-01 -3.918628628783072942e-01 -9.406244108371158985e-02 -2.400110033492081629e-01 -1.397734500735547114e-01 -5.649155865943042976e-01 -3.200963478943922302e-01 -6.063157570347911252e-01 -4.982175072758086576e-01 -6.096213756846473597e-01 -3.311936064774937405e-01 2.558574463514120545e-01 2.212640451336886083e-01 1.283613749651035807e-01 3.387105540856845121e-01 4.490633624688173953e-01 4.436200477834354589e-02 -3.997196650036883847e-01 1.153683975143084267e-01 -4.255177042060004911e-01 -2.474939774248247071e-01 -3.660361779124961523e-01 2.133429725439319746e-01 3.941137387456884744e-02 -4.853141201351375833e-01 2.242217346280010043e-02 -6.382636035609522418e-01 -1.291185084341371636e-01 -6.783197513389385147e-01 2.173657430056527562e-01 6.390485330466028069e-02 -3.936701543090089239e-01 -2.217898759099344586e-01 -4.049441348365029891e-01 -3.224264597451167447e-01 -4.437881436228688359e-01 2.123315565224291046e-01 -4.756168999757123261e-01 1.394716948871063955e-01 3.408252827363869586e-01 -1.480569879842102143e-01 -4.200609424248519241e-01 -3.419579336707916917e-01 -1.119695450920098756e-01 -1.080893065665832764e-01 -2.077372838306194847e-01 -5.866780456335299876e-01 -1.675044976720187484e-01 -1.631418492684827762e-02 -3.273779924469998742e-02 1.742134337362637453e-01 -7.062791905395890968e-01 4.532793640089477494e-01 2.103916397192902854e-01 -5.328958376808402564e-01 2.056811677769254942e-01 1.082884863335357127e-02 -2.562599896120439369e-01 3.010549132757087132e-01 -2.623643963594038953e-01 1.689368118858515233e-01 -1.708872707308649597e-01 -5.688880736079304778e-01 -2.296646560700456308e-01 -5.231924678787468475e-01 -2.358564635970963053e-01 8.803204903991031227e-02 2.804704939399374486e-01 -4.429328245428750810e-01 1.368997616562999363e-02 1.569251738530400564e-01 -7.687947882825348078e-02 -2.094729595889635587e-01 1.449643887327754233e-01 -9.724772603700171381e-02 -3.731770505633071888e-01 -6.860392306837641112e-03 -4.202851681379411730e-02 -1.034199938211170094e-01 -3.514058149535648767e-01 2.767389109032550309e-01 1.211814653569264488e-01 3.845950253531882010e-03 1.897127355881501540e-02 7.906514789348001448e-02 -1.648399262681170818e-01 4.278501915177560511e-01 5.695367242079675540e-02 -1.732948963705599199e-01 -3.500939949393590545e-01 -4.760571455301008670e-01 -3.036453864551267312e-01 3.353319588025741593e-01 -1.859149900866066338e-02 -2.945344098159398682e-01 8.861798684817687177e-02 -1.483179142976875087e-01 -8.170147215083380099e-02 -1.518833788733538193e-01 -1.606105958823118018e-01 3.705258426299299912e-01 3.023519233848152021e-01 3.082076709033868683e-02 -2.710359536830277416e-01 -6.401051843857425983e-01 -2.968686244114160377e-01 -2.533187262177313270e-01 1.234546178713247788e-01 -2.043363695582624262e-02 3.765428162191813422e-01 -1.521717553865678529e-01 1.965340926851540104e-01 -6.177418369319461755e-01 2.946935839497469289e-01 4.860714695668259810e-02 -3.999561728288781315e-01 -3.218825071137085270e-01 -2.590490862467275668e-01 1.445360720486398021e-01 -2.754205989759167528e-01 -4.093457970111531452e-01 5.037234244385128124e-01 2.378684927524395420e-01 1.729787117194718227e-01 -6.148946148207881917e-04 -4.335736474781910488e-01 9.657704523642124048e-03 1.161178975663764018e-01 -3.638505898510174252e-01 -5.532544909016824386e-01 3.775719523532867217e-01 -4.122360162484739465e-01 -2.407217034689877189e-01 -3.299824252200539432e-01 -2.506816487305702501e-01 -6.940723975527715028e-01 4.069412120865522065e-01 -9.702169713462045764e-02 -6.985123940597890435e-01 -4.611324441755278863e-02 -1.259775257180539565e-01 -5.532614000365755347e-01 9.949511537038382980e-02 -6.589957758323254922e-01 -2.436852331300030927e-01 -2.697655275385217322e-01 -1.377370417169804517e-01 1.197127145246928287e-01 -4.042336425925004972e-01 1.674004721476650137e-01 -3.817378843559297019e-01 3.824698160115135304e-01 5.852592742471407483e-02 -7.523396518932264077e-02 -2.556326692075894247e-02 2.270134036808786338e-01 -4.572758878883017020e-01 3.754226812358916754e-01 5.291967413091811512e-01 3.705779098575472941e-01 3.499031298209314134e-01 -3.455059499373550058e-01 -3.813764353015196007e-01 -7.883891358451153297e-02 -3.178969174777379614e-01 -1.416269618653835383e-01 -3.937978069901792999e-01 -7.405862310416995165e-01 -4.675270844765414546e-01 -7.311257384799862979e-01 -2.784924676324070925e-01 -4.420941042242033658e-01 2.169157919932008516e-01 4.152894925100822365e-01 6.333404088811819266e-01 -1.313850630718282619e-01 -3.828255466465359941e-02 1.667645208368178367e-01 2.547701361805365106e-01 2.135452675185958438e-01 -3.174386256168943432e-01 -4.110485125574186993e-01 2.338166993292510598e-01 4.555131530217381569e-02 1.911638562248230699e-01 -7.893918186599892250e-02 -1.334338878659207805e-01 -2.247128321350548019e-01 1.927588243376365251e-01 -1.200232494248453380e-01 -5.348992082496245581e-01 -6.701568170414334835e-01 -3.647825145467083474e-01 -7.192213061135920293e-01 -1.034670576593218483e+00 -9.564213833672546849e-01 -4.429806728235560764e-01 -5.172594780344680343e-01 -8.073120380881525504e-01 -2.919379156727184288e-01 -2.892705652389382931e-01 -4.500452031507606310e-01 -1.799553521725403560e-01 1.245310762442453090e-02 1.149251313643103040e-01 -3.261614201164549087e-02 4.074938110384300205e-01 -1.215124338669806431e-01 -8.785422492750821766e-02 1.218167266003617605e-01 1.892622872578409998e-01 9.831104899271216058e-02 -2.128037767064314412e-01 -1.477405613731565433e-02 -4.598179734088445048e-01 6.579098739458527634e-02 -4.398709769605589903e-01 -2.061221082411172634e-01 -1.723633947214424644e-01 -7.280163818423543987e-01 -2.859258638181235157e-01 -4.217420422778603295e-01 -2.209278070470396815e-01 -4.089760817532809289e-01 -2.925404282785472598e-01 -5.906862624478134149e-01 -6.292779677330860855e-01 -3.747576590375428784e-01 2.105349318328208208e-01 3.445974291816404633e-02 -1.519595643212019731e-01 -2.672955467177382527e-01 -3.215492629762589649e-01 -1.021720457506235247e-01 -4.878277822163844535e-01 -2.200215097856062507e-01 -2.751183515522201972e-01 3.787509396631907194e-02 3.231228907349881219e-01 -6.166754894655401137e-02 -3.581960057077360760e-01 2.689051400334095954e-01 2.405813142893865053e-01 1.778691085833932484e-01 -6.018303016794070981e-01 -5.792386270411763460e-01 -2.899415920478262132e-01 -6.299852315200203945e-01 -1.220739570659364198e-01 -1.066822015625072284e+00 -7.316786021600297785e-01 -5.473261128561659472e-01 -7.124768735093583993e-01 -4.850223629261770641e-01 2.161243946952655925e-01 -6.335679731661502112e-01 -2.775516892372412725e-01 4.539532499409608679e-01 3.139852993483300270e-01 -1.677898891489741084e-01 1.312577802542324590e-01 2.767784746811926544e-01 -7.209727061045574648e-02 -4.409998968811784104e-01 -1.952919967535943491e-01 1.166547414330499216e-01 -4.635211202895471172e-01 5.951306989653501467e-02 -3.880590606307621204e-01 4.203260904713796570e-02 1.552845781272773340e-01 -1.173143394607152057e-01 2.098045681065429172e-02 -3.078755872015745965e-01 -4.554899802842921064e-01 -2.251361334298603370e-02 1.293689623696815325e-02 -2.373196735884357603e-02 -4.152532403063760591e-01 -5.156541330884539809e-01 -3.203057297472054754e-02 7.225846118627546333e-03 -4.658468904905069263e-02 6.849389599042629735e-03 -3.122254552454706844e-01 -2.861992144474689859e-01 2.999487747628076448e-02 -4.130045192041459923e-01 2.371846113473702888e-01 -4.118997636790583949e-01 2.120901602678336717e-01 2.959000979615848403e-01 3.867414703460770875e-01 4.163128580958469493e-01 2.709698625686581819e-01 -2.324159803841137351e-01 -3.457005666888563616e-02 -1.312788047041226099e-02 4.637701273169725913e-01 -2.992442998533089149e-01 -1.943910909368598838e-01 -1.615766704164963152e-01 1.944571409287736974e-01 3.776328175786769492e-01 3.674806848664561865e-01 1.225549081711104805e-02 -1.218997732361417063e-01 -2.983347164725877465e-01 -4.945159267725822150e-01 7.093085109370421415e-02 -6.172866925869835431e-01 -6.337147886345657899e-02 7.474504350377288164e-02 1.319751087369074871e-01 3.955404496915020385e-01 -4.024198258864655209e-01 2.024417959084239271e-01 1.321878799166269214e-01 -5.286705128207128679e-01 -2.569603198359041718e-01 1.795448287510045260e-01 3.485574810220136710e-01 -2.362485132450487801e-01 -2.248646831694739723e-01 3.094520637285947395e-01 -3.704443191024909821e-01 2.239451280278927092e-01 -4.907803396822947306e-01 6.741249757484048949e-03 -5.099310428918708560e-01 -1.282129115293023369e-01 -3.224758576055743453e-01 9.941299034729253470e-02 -3.752161627241554914e-02 1.876721043131419631e-01 -2.663851904506182589e-01 1.494471262195004313e-01 2.794382600564228047e-01 -2.024760839237346177e-01 -5.141807119758020628e-01 -3.889090429571080698e-02 -5.503988935990064002e-01 2.565589656942743324e-01 -1.005626703278942290e-02 2.097565349680651781e-01 -8.723831373560443636e-02 -2.375725939484935600e-01 2.268465033616091919e-02 2.788722177837950067e-01 -3.068026031140194121e-01 3.973214584485266210e-01 -5.117585150512642400e-01 -2.500816539024121599e-01 9.949900029854599065e-03 2.753263021118932397e-01 5.552538082741326209e-01 -2.590946013532212100e-01 2.296664961836804297e-01 -1.947452932725628472e-01 -4.113759925601952194e-02 2.114971979386289502e-01 2.136553382939170298e-01 -6.626041871973274711e-02 2.351943199248886507e-01 -3.949634429880855557e-01 -3.071074452956343639e-02 -1.544351005636731590e-02 2.063777296957871044e-01 -3.046960904033044759e-01 2.452622299147925733e-01 3.772703376785084550e-02 -4.767797573458751326e-01 -1.602811584014903271e-02 3.200770849014156760e-01 -5.266182918463825358e-01 4.266504431080619386e-01 -1.744966526310169908e-01 1.283717209963986805e-01 -4.052632976223241590e-01 4.350566465134840521e-03 2.859201804306952255e-01 -3.618017205894019095e-01 -2.410970786828773860e-01 3.578755952985174932e-02 2.074542831511350105e-01 3.167636992640450178e-01 -5.209721515785638024e-01 -4.767016115793467623e-01 -1.537782344587239891e-01 -1.770779696339434828e-01 1.232263361206001190e-01 1.801785537536339243e-01 -2.651224511191344058e-01 -2.986931026287319435e-01 -2.629861196148389757e-01 -2.833251754689189994e-01 -1.295316019049710665e-01 -9.218562742935344778e-02 -1.756725667919334655e-01 -5.024287467364265680e-01 -1.716289348502320622e-01 -6.668924791475325242e-02 -2.082326800184944038e-01 2.941989865231976059e-02 -4.547144160542357927e-01 3.403091009464731531e-01 -1.878385203488070199e-01 -7.829951034443360935e-02 -2.815226236984943453e-01 4.012756226681515881e-01 3.873651082912430987e-01 -1.846626587801025732e-01 -4.512205648859186624e-01 8.383544053350391878e-02 1.075909442664909760e-01 -3.478606931646899825e-01 -1.311881590844972134e-01 -8.523948903421739443e-02 -2.132468567056853281e-01 1.614393355852580536e-01 -2.865684644177477480e-01 -6.147235430523100702e-02 -4.842949172480778275e-01 -3.320786590264929727e-01 -4.085725480097460172e-01 -5.567589219710989967e-01 1.535436903949577159e-01 -1.660164925936243319e-01 6.250157465270048118e-02 9.262842519425461274e-02 -1.933267100424301277e-01 -1.014648996871460318e-01 1.471874332981769860e-02 -4.710233035400889223e-01 1.157045749812435215e-01 3.880941400583428069e-01 3.717335343444140849e-01 4.378812395858440731e-01 -2.776011591859429625e-02 -1.004137665470506563e-01 -1.345510028014625936e-01 3.077641135712695375e-01 2.965484367533017251e-01 -1.849235970311089439e-01 2.143642859923847455e-01 -6.235544443207046567e-02 -4.836371131832017944e-01 -5.173152865492000041e-01 -8.544340236323264004e-02 -2.284233946489749034e-01 3.160370117936763812e-01 4.087796993508855392e-01 -1.183153958975844966e-01 -1.334114212342197292e-01 1.318028171459181830e-01 -4.118115414351604109e-01 -3.936722747341413475e-01 -7.247742153629267714e-02 4.597653856942328643e-01 3.654374206758683741e-01 3.053543999449743751e-01 -2.327601033291001598e-01 -1.306214613795362023e-01 -4.832801287750345676e-01 -4.894720092529701305e-01 -4.104477004307917620e-01 4.408985303192121119e-01 -5.124985880089449886e-01 1.440030977771041831e-01 -8.679786810628863092e-02 1.431301987131966547e-01 -4.779877901615327551e-01 -5.088577847887372496e-02 -5.399110152333354007e-01 -5.207189066318766990e-01 -1.498791896250450950e-01 -2.035751461362552139e-01 -5.203793905509299655e-01 2.861387325428729755e-01 3.673603632681139430e-01 3.338288262029724951e-01 -2.962947350066516550e-01 -2.816504073365364569e-01 -1.890053547952290636e-01 -1.239644671196588749e-01 3.009428466429797111e-01 -3.566929152866679109e-01 -4.377965957921923362e-02 2.885234352798059232e-02 -2.326607321041671006e-02 2.380824498220010244e-01 1.275360742584342455e-01 4.506067089971055317e-01 2.188793551500844425e-01 1.314302260727238658e-01 -2.376885967896378293e-01 1.925063419758538397e-01 1.622992378673271119e-01 -4.071031859073415138e-01 -3.626324186464106036e-01 4.351193939715409242e-01 -4.246157054572823331e-01 -1.143424007225512795e-01 3.415972694219411299e-01 4.449441857782658882e-01 3.935784386449572847e-01 -3.766086394381601421e-01 -2.654971219483673317e-01 -4.173735954425621952e-01 1.015507536622376195e-01 4.223463254939294753e-01 1.856291820402528048e-01 -3.902704651286920817e-02 8.527724145200944739e-02 -4.459619862138873847e-01 4.315820907432397213e-01 1.757973573594840688e-01
